0.087797183088169,0.432578996001121,-0.0736794747536435,0.108545243652165,-0.196697106533652,-0.330635383902429,0.165797434704957,-0.281423993194962,0.267136254471071,0.43922022189928,-0.4986895715025,-0.327227719341862,-0.337739000425366,-0.0764591436976369,-0.412329593106441,-0.0392275195712032,0.197811154149711,-0.41611566728412,0.0803969127409613,0.296708984385308,-0.212977945804596,-0.0144494044677694,-0.44567734003067,0.21551446794433,0.192347179995174,-0.0398893750745207,-0.438732346856449,0.0510202102821926,-0.117993714792046,-0.39957655002294,-0.235992789268494,-0.254949986934662,0.160427615046501,-0.36485093832016,0.251617819070816,0.107745841145515,0.16341500553843,-0.112788054108835,0.406413710451407,0.0522876794454098,-0.419942452730316,-0.3725591572521,0.177256733179092,-0.190309941768646,-0.262877106666565,-0.274818897247314,-0.147251769900322,0.222916468977928,0.327795607888465,-0.0502968802944225,-0.24259371304721,0.392104518490822,0.113311038507735,0.192967645813571,-0.233390316367149,-0.0798817723989487,-0.447377622127533,0.428482472896576,0.0306259393692017,0.410326778888702,0.758062983192704,0.939120013254459,0.0226465629526783,0.131739802286871,0.25369497663798,0.229294300079346,0.699674964892631,-0.20062792301178,0.184394517833236,0.22199147939682,-0.94450633573985,0.172783261109833,-0.186506019916197,0.156395393553587,0.0813466804534626,-0.0464700177039444,0.0187333226203918,0.105351406477854,0.126412406563759,0.0943393689934711,-0.0861003994941711,0.0764367439294057,-0.193891525268555,-0.225083708763123,-0.139929085969925,0.102094575762749,0.0931611359119415,0.167733550071716,0.0164316892623901,0.168717384338379,0.216337561607361,0.198635905981064,0.233091562986374,-0.0646770592853262,-0.43676219747546,0.0169439971130934,-0.102267028619241,-0.0542671137051912,0.215724915266037,-0.0618212290651343,0.0440002679824829,-0.21597810523318,-0.17074528336525,-0.46666674506534,-0.0421326516031309,-0.352100326672859,-0.144752451837568,0.0279117872123424,-0.0892143853020799,0.147613167762756,-0.116112201533318,0.164993539452553,-0.0644937355286869,-0.140798777341843,-0.460309597213217,0.152384608983994,-0.0195524320006371,-0.178057760000229,0.0267565473914146,-0.125069737434387,-0.0720640495419502,-0.139463901519775,-0.080602653324604,-0.165847271680832,-0.0973351299762726,0.13754814863205,-0.234157353639603,0.150581181049347,-0.0756396949291229,0.21862581372261,0.179250240325928,0.113844111561775,-0.165943175554276,0.0627858862280846,0.0314309373497963,-0.0554001927375793,-0.0670737326145172,0.480288249963663,0.583848995726964,-0.08641156343333,0.0142417401139695,-0.0293928653448942,-0.0958733186125755,1.10520982976684,-0.0452353730797768,-0.21443140346994,0.0687845945358276,-0.9547004587953,0.109558074056215,-0.215379432321876,-0.0762502142726774,0.0952530345916473,0.0229840703889362,-0.0791598483920097,-0.0937491885940921,0.182051479816437,-0.163560369747103,-0.0742563307285309,-0.233600518218914,0.00340045749118951,0.165098174916045,0.133150535392019,0.226634268873654,-0.0595530944685217,0.105467490851879,-0.00231702219784035,-0.227233439683914,-0.01250834945118,-0.225192725658417,0.00365551124943992,0.118196793140059,0.328189189523809,-0.0239230990409851,0.08385325473109,0.295915462012325,-0.144845247268677,0.104491762816906,0.0405797880319165,0.363324750938867,0.0922448320823259,-0.472419681645099,0.526247603072486,0.952279852365464,0.00911158323287964,1.88010369011516,2.03761268967493,0.0865284949541092,-0.0491680800914764,0.158054403174462,0.748984587852486,-0.304879694832744,1.89158111670816,
